//Numpy array shape [72, 6]
//Min -0.709406435490
//Max 0.641408920288
//Number of zeros 108

#ifndef W18_H_
#define W18_H_

#ifndef __SYNTHESIS__
dense_0_weight_t w18[432];
#else
dense_0_weight_t w18[432] = {-0.4633062780, -0.1060920209, -0.2993792892, 0.2735880911, -0.4881559610, -0.0000000000, -0.0428595990, -0.0717905760, 0.0613706149, 0.0010175308, -0.1990932226, 0.1266150922, -0.2364939898, 0.0241289306, 0.0000000000, -0.1343377084, 0.1289863437, -0.0000000000, 0.0244435724, -0.0000000000, 0.0729066432, 0.0000000000, 0.0000000000, 0.0099246008, 0.3177173436, -0.0000000000, -0.0716720968, 0.0000000000, 0.1269382983, -0.0000000000, 0.2190521806, -0.1936078668, -0.0000000000, 0.0000000000, 0.1528557092, 0.0000000000, -0.3716431558, 0.1313933879, 0.1074802503, 0.0104734013, -0.3821296990, -0.1640101373, -0.2106858939, -0.2061138153, -0.0655273944, -0.2272059768, 0.1430888772, -0.2920168340, 0.0000000000, -0.0409410074, 0.0000000000, -0.3223083317, 0.0000000000, -0.1820356846, 0.2912184894, -0.1665756106, 0.0000000000, 0.0505641997, -0.0345120504, -0.0486322381, -0.0000000000, -0.1942033619, -0.0306675620, -0.1158601269, 0.1749926209, -0.0000000000, -0.0000000000, -0.0000000000, 0.0000000000, 0.0940197557, -0.1609220803, 0.0992875919, -0.1062826589, -0.1015527099, -0.2754434347, -0.0313905403, -0.1060718521, -0.0366322510, -0.1274047494, 0.1344919354, 0.0000000000, 0.1214803606, -0.1990278214, -0.0000000000, 0.4986095130, 0.2756821513, 0.0085848747, 0.0000000000, 0.0000000000, -0.2021968663, -0.1252360791, 0.0472357236, 0.0478219315, -0.0709321946, -0.0680568144, 0.0242618881, -0.1712251604, 0.2872896194, 0.0992136821, 0.0000000000, 0.0000000000, -0.0000000000, 0.1875831038, -0.3112852871, -0.1412375122, 0.0000000000, 0.1168463752, 0.0000000000, -0.1039808691, 0.1452656984, -0.0409999639, 0.0121791987, 0.0783931911, -0.0954483077, -0.0152514344, -0.0000000000, -0.3340633512, 0.0000000000, 0.1259988844, 0.0363197252, 0.0000000000, -0.0000000000, -0.1030966043, -0.0343913436, -0.1127831265, -0.0000000000, 0.1046333984, -0.1215890720, -0.0192278624, 0.0000000000, 0.1977350414, 0.1047026291, 0.3171884120, 0.0780145675, -0.2098774463, 0.2779324651, 0.1632783413, -0.1768493950, 0.1984543800, 0.1563823223, 0.0406332240, 0.0000000000, 0.1183426529, 0.1968159676, -0.0000000000, -0.2871769965, -0.1163609475, -0.2495840043, 0.1996711344, -0.0045159608, 0.2854070961, 0.3400664330, -0.0067072567, -0.0517791882, -0.1019889116, 0.0000000000, 0.1233964339, -0.0000000000, 0.2864480317, -0.3880506754, -0.0700243190, -0.1840427816, 0.2214822620, -0.0000000000, -0.0000000000, 0.0384204946, 0.0000000000, -0.0000000000, 0.0000000000, 0.1559118927, 0.3274566233, -0.2763018310, -0.0000000000, -0.2406744957, 0.0612867773, -0.4739589095, 0.0000000000, 0.0000000000, -0.0000000000, 0.0000000000, -0.1480889618, 0.3490751982, 0.0000000000, -0.2823275924, 0.1782620549, -0.0000000000, -0.0622912645, -0.1042685509, -0.1421146542, -0.0000000000, -0.1235947683, 0.1380199045, 0.0000000000, 0.2037762851, -0.0000000000, 0.4435088336, -0.0048174625, 0.0709609091, 0.0104693854, 0.0396542288, -0.1711769253, -0.1617758572, 0.0000000000, 0.0000000000, 0.0000000000, -0.0000000000, -0.3044506311, 0.0957786441, -0.0308630802, -0.1489127278, 0.2257679105, 0.2898031771, 0.0662205294, 0.3153513372, 0.1201423332, -0.0000000000, -0.2118370682, -0.0296668056, -0.0798995867, -0.2522052228, -0.0665310100, -0.0482356884, 0.3271522224, 0.1820336729, -0.1039094850, 0.1880210787, -0.0000000000, 0.0000000000, -0.0746969059, -0.1009777710, 0.1135717034, -0.4185785949, 0.0000000000, 0.2053017318, -0.0118821263, -0.0000000000, -0.0963702053, -0.0000000000, 0.2561821043, 0.1125362366, 0.3203753829, 0.0477962792, 0.2392369211, -0.2953506708, -0.0054173684, 0.0531302914, -0.0567522943, -0.1594993025, 0.0000000000, -0.1352484077, 0.2271816730, 0.2178644687, 0.1745797694, 0.0715295002, 0.1102395654, 0.3546543419, 0.1558490396, 0.1994255483, -0.6232940555, -0.2494308650, -0.0708271861, -0.0000000000, 0.1011265144, 0.1436331123, 0.0000000000, -0.0000000000, -0.0000000000, 0.0000000000, 0.1552179158, -0.2263589054, 0.0000000000, 0.0000000000, -0.0950807258, -0.4058309197, -0.0660037324, 0.1084771380, -0.2718956172, 0.0065878169, -0.3238024414, 0.5228495598, 0.0290522724, -0.1362471282, -0.0000000000, -0.0690077320, 0.0734388828, -0.1790298522, 0.1093577370, 0.0478868037, -0.3731319606, -0.0000000000, -0.0544718541, 0.0000000000, 0.0000000000, -0.0000000000, 0.1279920489, 0.1828361005, 0.0000000000, 0.1008144394, -0.0709334537, -0.0000000000, 0.0000000000, -0.2186330557, 0.0000000000, -0.2348635495, 0.0000000000, 0.1790522486, 0.0925837606, -0.0270554014, -0.1704271138, 0.2021246403, 0.3350836039, 0.1546768993, -0.1060297340, -0.1144962758, 0.1724179238, -0.2315673828, 0.2250534147, -0.0000000000, -0.0000000000, -0.0996971205, -0.2786649764, -0.0484000109, 0.1113718674, 0.0494876355, 0.0470367335, -0.0000000000, 0.1175697893, 0.1650669724, 0.7150453329, -0.0000000000, -0.0000000000, -0.1949615628, -0.0682690889, -0.9990884066, 0.4677840769, 0.1846061647, 0.0527872406, -0.0757055432, -0.0081442976, 0.4152043462, 0.3368209004, -0.0000000000, -0.1305493563, 0.0121828662, -0.0000000000, -0.1719802320, 0.0000000000, -0.0000000000, -0.1132050678, 0.0222344119, -0.0754890367, 0.2242910564, 0.3501187861, -0.0000000000, 0.0410831608, 0.0000000000, 0.0547382273, -0.0812305734, 0.0573603883, 0.0642777458, 0.0201702099, 0.1912729591, 0.0995811075, 0.0160037056, 0.1588757485, -0.1299185604, -0.0000000000, 0.1352998465, -0.1415929198, 0.0283803120, 0.0363042876, 0.0085273162, 0.0000000000, -0.0000000000, -0.0605813898, -0.0270629600, -0.0000000000, 0.0826070532, -0.0000000000, 0.1001373753, -0.2339843661, 0.0694208667, 0.5021778345, 0.1770763397, 0.0154918805, -0.1981289983, 0.0036927944, 0.0000000000, -0.5637918115, 0.1933542192, -0.2864664495, -0.0372562073, -0.1615602970, -0.0000000000, 0.3929588199, 0.0374192633, -0.4138326049, -0.0000000000, 0.2458252758, 0.6404557228, -0.0273103118, 0.4246540070, 0.2149410248, 0.1601640433, -0.0802157745, -0.6411838531, 0.6320629120, 0.0000000000, -0.0410189666, -0.1672428846, -0.0000000000, -0.0125414683, -0.2458199412, 0.2870627344, -0.1432824135, 0.0878934637, -0.0000000000, -0.1428440213, -0.1556371748, -0.0795603693, 0.0246265642, -0.0000000000, -0.1404067874, -0.6311359406, 0.0000000000, -0.2748577297, 0.2773888707, 0.0000000000, 0.0547131114, 0.0853822082, -0.0980352089, 0.0629400387};
#endif

#endif
