//Numpy array shape [6, 24]
//Min -0.704165637493
//Max 0.958016574383
//Number of zeros 36

#ifndef W22_H_
#define W22_H_

#ifndef __SYNTHESIS__
dense_1_weight_t w22[144];
#else
dense_1_weight_t w22[144] = {-0.8110615015, -0.4505031109, -0.3506957293, -0.0000000000, 0.5481415987, 0.0000000000, -0.3186973929, 0.0000000000, -0.0000000000, 0.8218830228, -0.5920869112, -0.0773431584, -1.3651919365, -0.7226009369, 0.0000000000, 0.8390979171, -0.0000000000, 0.8312817216, -0.0000000000, -1.0931692123, 0.5472546220, -0.9378060699, -0.8306769133, -1.2835632563, 0.0000000000, -0.0000000000, -0.5924514532, -0.5354765654, 0.9001682997, 1.1629570723, 0.6802643538, 1.2420400381, -0.8741154671, -1.1062418222, 0.6061493158, -0.9431648254, 1.2076210976, -0.6447916031, 0.0000000000, 0.3125349283, 0.3630864620, 0.5150039792, -0.8262043595, 0.8565704226, -0.1651217639, -0.8163513541, -0.0000000000, -0.5301923752, -0.5408207178, 0.0000000000, 1.0349558592, -1.3629342318, -0.0774645358, -0.8507215977, 0.8566587567, 0.0000000000, -0.0000000000, 0.2045687139, 1.2146173716, 0.6218970418, 0.6226436496, -0.3149732053, 0.0000000000, -1.4626594782, -1.0718481541, -0.0438106023, 0.4136873186, 1.3948543072, 1.1604096889, -1.0008214712, 0.7309100628, 0.3459134400, 0.0000000000, 0.0000000000, 0.6909933090, -0.7606530786, 0.0000000000, 0.0000000000, 0.0000000000, -0.7052443027, 1.3883407116, -0.7433767319, 0.6005713344, 0.2807495892, 0.7437800765, 0.0000000000, 0.0000000000, -1.1812008619, 0.6671451926, -0.1562588811, 0.8275176883, -0.0000000000, -0.0000000000, -0.4904913902, -0.3370071650, 0.2899092734, -0.6252102852, -0.0000000000, -0.5155855417, -0.6197575927, -0.0000000000, -0.2901400626, -0.5260570645, -0.7107444406, 0.1207406893, 0.0000000000, -0.9472460151, -0.1977662593, 1.0874404907, -0.7519862652, -1.0046646595, 0.0000000000, 0.3463811278, 0.6393742561, -0.0000000000, 0.5893041492, -0.0000000000, 0.2555110455, 1.6562582254, -0.8128333688, 0.8382502794, 2.4885733128, 0.0000000000, -0.4591848850, -0.3114219010, 0.3639159203, -0.2003292888, 0.0000000000, -0.9101158381, -0.0879355371, -0.0000000000, -0.8300737143, -0.0360605083, 0.8741566539, -0.0000000000, 1.1955866814, -0.5699209571, -0.4554817080, 0.9862947464, 0.2686584592, -0.0000000000, -1.3510320187, -0.0153043931, 0.0000000000};
#endif

#endif
