//Numpy array shape [24, 4]
//Min -1.180653691292
//Max 0.660373806953
//Number of zeros 0

#ifndef W26_H_
#define W26_H_

#ifndef __SYNTHESIS__
output_dense_weight_t w26[96];
#else
output_dense_weight_t w26[96] = {0.1634310782, 0.2284472287, 0.3044312596, -0.6373919249, 0.3401954472, -0.6072246432, 0.0779877976, -0.5464230776, -0.2235789001, -0.6602576971, 0.4379205704, -0.1840036809, 0.4186321795, -0.7172127962, -0.2608408034, 0.4934810400, 0.2864125967, 0.3840014338, -0.6531131268, -0.5943536758, 0.1126645207, 0.1141222715, -0.5697927475, -0.4943426251, -0.3568266630, 0.4451241195, -0.2673529387, -0.3987438679, 0.5123119354, 0.5518327355, -0.0549728498, 0.1019829512, -0.3891470730, -0.6166804433, 0.0384204574, -0.0758776590, -0.2356256992, -0.4829359949, 0.3099647462, 0.2022880018, -0.5511144996, 0.2086590677, 0.4834838510, -0.1644256264, 0.2603954375, -0.7920242548, -0.1746390909, 0.4135659635, -0.5461133122, 0.2935053706, -0.3731331527, 0.1756839603, 0.6297996044, -0.1856070757, 0.1629694402, -0.5733253360, 0.1517220140, 0.2246959955, 0.0952604786, 0.1005619466, 0.4047931731, -0.6734281182, -0.0020041063, 0.2131875455, -0.4295109510, -0.1020621359, 0.2762011588, -0.2801691592, 0.2395055890, -0.2314270586, -0.0354679897, -0.2509895563, -0.0397806391, -0.2899493277, 0.0935134068, -0.4087061286, -0.3215002716, 0.1988347471, 0.3406932652, 0.4862575531, 0.1160063446, 0.2170463055, 0.2285803705, -0.5838074088, 0.1707490236, -1.1806536913, -0.1880477667, 0.3328683376, -0.1713443249, -0.0288028996, -0.5022565126, 0.4240992665, 0.5723884106, -1.1227715015, 0.6603738070, 0.2158447355};
#endif

#endif
