//Numpy array shape [24, 4]
//Min -1.428862214088
//Max 0.988167524338
//Number of zeros 0

#ifndef W23_H_
#define W23_H_

#ifndef __SYNTHESIS__
output_dense_weight_t w23[96];
#else
output_dense_weight_t w23[96] = {0.2406381071, -1.4288622141, 0.0105056828, 0.5014002323, -0.7582430243, 0.7883727551, -0.4193811715, 0.6293924451, 0.1711805910, -0.9525425434, 0.0206833668, 0.1742043942, 0.2019885331, -0.4810627699, -0.4277974963, -0.3736511767, 0.2839492261, -0.0089884298, 0.1049635857, -0.5627350211, -0.0501510054, -0.9137463570, 0.0160925966, 0.4116157591, 0.6269575357, -1.3909875154, 0.2082957923, 0.4370455146, 0.0880504474, -0.8603731990, -0.8574790955, -0.2253324836, 0.2902273238, 0.8172453642, -0.4397236407, -0.7852337360, -0.8790540099, 0.9881675243, 0.5785509348, 0.0476895422, 0.0867618844, -0.7242546678, -0.2184679955, 0.2663785517, -0.5361294150, 0.3912400603, -0.3733954430, 0.4739711583, -0.3299742639, -0.8811040521, 0.4675758481, -0.7139425874, 0.3635511398, 0.4776456952, -0.6971040368, -0.8529537916, -0.0913199633, -0.1230679154, -0.3681078255, 0.3120557070, -0.9241084456, -0.2406783849, 0.9589073062, -0.3780287504, -0.2258974463, -0.3782601357, 0.7664558291, -0.1273523271, 0.0569609590, -1.0987303257, 0.0243359376, 0.4575070441, 0.2714718282, -0.7347421646, -0.4199533761, -0.3446018994, -0.1837109178, 0.7596066594, 0.0231313258, -0.2922756076, 0.6835328937, 0.1560399085, 0.1336117089, -0.6561206579, 0.2293892205, -1.3913165331, 0.2605478466, -0.9081350565, -0.1461905539, -0.8014092445, 0.5763213634, -0.6589683294, 0.7156826854, 0.2946137190, -0.5068275928, -1.0910856724};
#endif

#endif
